-0.0967652 -0.713046 0.652288 -0.550238 -1.28157 -0.928947 -0.475094 -1.00045 -0.916557 0.613706 -0.28881 0.985269 -0.680439 -2.21268 -0.646292 0.75649 0.125502 -0.0131891 1.16612 -0.815304 -1.01114 1.42697 2.96177 0.694084 -1.06499 
-0.321488 -0.722756 0.577066 0.879507 -0.192633 0.879822 0.393119 -0.556286 0.1383 -0.0316685 -0.0378991 1.80311 -0.502905 1.16247 -0.0866254 0.0330315 0.238992 -0.836447 0.4095 -1.30462 -0.119889 1.62669 -0.702884 0.959751 -0.776757 
1.01495 -0.222016 -0.646921 0.832219 -1.30402 -1.05208 0.501849 -1.21066 -0.297796 1.08117 0.958659 0.663344 0.463718 0.0115185 -1.32415 0.00019548 -0.794406 1.55475 -1.9783 -0.379675 0.00884593 0.233072 -0.132956 -0.25461 0.549445 
0.287927 -0.116731 -1.3411 -0.745055 0.295778 -1.85512 0.418227 0.144844 0.70294 0.0989933 -0.698613 1.13797 1.08903 0.572609 0.56383 -0.344047 0.596893 0.325079 0.823255 -0.544593 -1.01865 -0.994647 -0.872719 -0.459216 1.46301 
0.70157 -0.145227 0.408068 0.980816 0.172501 -0.331743 -2.33878 1.33902 0.147276 0.712538 0.904343 1.4615 1.03193 1.72591 -0.593293 -0.709206 1.12238 1.63868 -0.272887 0.734863 0.569891 0.334079 -0.366401 0.589048 1.36806 
-0.540467 0.792865 -0.904977 -0.7668 -0.997967 -0.595105 1.57889 -0.516783 -0.187108 0.175231 0.915777 -1.66792 0.840582 -1.33957 -0.390662 0.998346 -1.92109 -0.0612018 1.33378 -0.697108 -1.39698 -0.489265 -0.298099 0.868384 -0.217375 
-0.284166 -0.958349 1.21622 3.01272 0.599991 0.265155 0.942132 1.6183 0.310031 -0.140215 0.3688 0.989579 -0.235295 0.930322 0.313049 1.53415 -0.186266 -0.710199 0.858689 0.443459 -1.42002 -0.0791827 1.1983 -0.34913 0.150714 
-1.47317 0.0481231 -0.86693 0.801101 -0.344866 -0.171924 -0.243834 -1.14763 -0.674239 -0.453519 -0.0138577 -0.110773 0.243894 -0.352728 -0.894441 -0.940396 0.112265 -0.164178 0.0598054 0.912287 -1.16357 0.27318 -1.54592 1.78939 1.43886 
-0.226926 0.487482 -0.637516 -0.715887 1.76891 -0.124069 0.0948356 0.296927 -0.974952 -0.0274216 0.513332 -0.585602 -3.32958 -0.168136 1.31454 -0.270487 -0.486145 0.17989 -0.84144 -0.452875 -1.30097 0.545645 -1.26683 0.0361597 -0.957583 
0.287183 1.07719 -1.58186 -0.346829 -0.645572 0.321139 1.05076 -1.79206 -2.31824 1.30097 1.4514 1.03094 1.08173 0.305594 1.4682 -1.11534 0.550993 -0.500088 0.813164 0.45824 -1.06153 -0.555271 -0.278109 1.01226 -0.0199931 

-0.0363399 -1.19295 -0.95082 -0.433045 -1.59571 -0.530763 0.470392 -0.16737 0.792727 0.905753 
-1.37698 0.678671 -1.16155 0.914789 0.301395 -0.22958 -0.162494 1.55693 0.516608 -1.01812 
1.39647 -0.337871 -0.340934 0.981747 -0.370067 0.444279 0.493412 0.739022 1.86846 -0.295578 
-0.673426 -0.0542154 -0.342252 -1.4933 -1.98718 -2.31586 -0.631924 0.225053 2.14084 0.78765 
1.98195 0.580705 0.414932 -0.935069 1.13684 0.0302807 0.373944 0.547213 -0.464684 -0.23158 
2.21805 1.08684 1.53583 0.203901 -0.184322 -0.645243 -0.0987943 -0.013837 0.590368 -0.437196 
-0.595579 0.453902 -0.0487527 -0.164653 -1.00532 -0.634273 0.840797 -0.00975966 -0.89172 -2.14645 
0.28216 -0.856852 -1.15946 0.269834 0.267472 0.756568 -0.0897395 -1.08646 -0.416588 1.48651 
-0.365792 0.607878 0.327687 -1.89928 -0.124453 -1.94064 -0.339176 -0.14292 0.236214 0.181706 
-1.19079 -0.408448 1.51235 0.00338557 1.46248 1.25967 0.627321 -1.24998 -0.954428 -0.664867 

0.536972 1.9451 1.50442 1.4775 -1.19906 0.12043 -0.448769 0.667673 -0.799182 -0.470692 

