-0.158795 -1.27135 0.657554 -1.01821 -1.29852 -0.958572 0.559851 0.109791 0.403986 1.00353 0.712568 -1.93682 0.256894 -0.224341 -0.827203 1.23458 -0.225432 -0.744468 -1.37071 -0.405835 -0.13238 -0.519639 0.813105 1.67689 0.956511 
0.306555 0.410609 -2.47306 0.436766 -1.48929 -2.34264 -1.22977 1.70763 -1.44203 0.753949 -0.703157 0.579749 -0.151498 1.11654 0.543142 0.780034 1.87825 -1.04191 0.19996 -1.10351 0.00994951 -1.76491 -0.945594 0.505256 -0.390795 
-0.0283917 -0.357336 -0.130132 0.425521 -1.21982 1.47129 0.0923353 -0.805438 0.395296 -1.63278 0.192317 0.141167 -2.56434 -0.98168 0.237959 -0.165313 0.629214 -0.0145375 1.63557 -0.407541 -0.214307 0.0571675 0.211608 0.932809 -0.100833 
0.911112 1.51914 -0.328581 -0.592372 -0.00667048 1.14397 -0.538204 -0.395409 0.235815 0.142857 0.405108 1.08487 2.06134 0.764284 0.358101 -0.204476 1.08897 1.23283 -0.783563 -0.751157 -0.567858 -0.639376 -0.46383 0.668119 1.7504 
0.348173 -1.19862 0.953417 0.257891 -0.956999 0.303598 -0.823512 -0.369783 0.199255 -0.932038 0.555364 1.79031 -1.58125 -1.72078 0.826555 -1.55546 -3.09718 -1.18679 -1.89598 0.231312 -0.255336 0.89861 1.0221 0.58535 -0.670198 
1.57807 1.04198 0.114024 -0.912051 -0.496428 -0.761229 0.955186 1.77011 1.43497 0.462105 -0.461364 0.817768 0.824745 0.0845403 0.878257 -1.90669 -0.390413 -0.0917035 0.911128 2.24031 1.465 0.0618174 0.108286 2.16955 0.125594 
0.0567291 0.158183 -0.609838 0.0245491 -0.23052 0.862954 -1.44002 -0.853711 0.394017 0.497194 -0.768056 -0.558506 0.349161 0.554671 -1.48632 0.62406 -0.839446 0.672671 -0.33611 -0.254111 -0.535027 -0.299917 -0.453888 1.51552 1.33668 
-0.493624 -0.261638 -0.416555 -1.18279 -0.13621 0.227874 -0.32243 -0.199052 0.293895 -0.0457349 0.941076 1.70187 0.891468 1.3863 0.180566 -1.28285 0.999814 -0.190726 -2.16638 -0.352636 -0.582731 -0.771294 0.542948 -0.465179 0.281319 
0.297576 0.230557 0.989416 -1.37664 -0.508822 0.373205 -0.398909 0.217126 -0.472087 -1.1033 1.16688 -0.521288 -0.379094 -0.857698 -1.10377 -0.271197 -0.490309 -1.39985 -0.58479 0.726372 -1.18441 -0.214249 0.510164 -1.36424 -0.832416 
-0.0172404 -0.465452 2.27528 0.172046 2.53986 -1.09485 -0.999835 -1.07644 1.45601 0.693922 -0.521624 0.255335 -0.258999 -0.583989 -1.22285 -1.02901 0.384915 -0.227187 -0.319525 -0.169392 0.672998 -1.06957 -2.01741 -0.613627 -0.389627 

-1.05685 -0.417128 -0.0849435 -0.93083 -0.271378 -3.23296 -0.641853 1.04512 -0.421878 1.33023 
-0.0100756 0.76542 0.357926 1.24298 0.494127 0.720856 -2.79474 -0.576415 0.586991 0.425333 
0.62013 -0.0236031 1.33613 -1.25995 -0.556242 0.11458 1.11814 -0.576634 0.220184 0.21479 
2.11565 -0.393711 0.193495 -0.490686 1.76583 0.564385 -0.159872 1.32188 -0.592838 1.63774 
0.883659 0.673743 0.288665 -0.849544 0.658566 0.195537 0.0987997 0.840459 -1.55348 -0.030826 
-0.555286 0.141944 -0.441422 -0.00437613 -0.112291 0.954899 -0.216361 1.36327 -0.773433 1.01745 
-1.34686 1.30796 -0.449375 -3.24164 0.288551 0.146467 0.735415 0.936754 -0.374316 -0.438116 
-1.74324 0.509322 -1.44422 0.0558616 -1.24578 1.65062 0.319223 0.0686916 0.987915 -1.99169 
0.355297 -1.38966 0.456954 -1.2356 0.635749 -1.38306 2.76209 -0.0414644 0.537138 -0.676096 
-0.917499 1.43616 -0.848064 1.23231 0.807921 0.0245093 0.719271 0.137683 -1.55159 1.04879 

-1.27626 -0.500303 1.54745 0.70364 1.1323 -0.0311941 2.27003 -1.31913 -0.0654682 -2.11204 

