0.505281 1.28199 -1.2654 1.2824 0.0442791 -0.256493 0.946092 1.23162 -1.59815 0.371057 -2.14101 0.524225 -0.175026 -1.21668 -0.795415 -0.0362867 -0.640939 0.104184 0.73951 1.1773 0.63942 -0.76574 0.0432433 0.476891 0.768346 
-0.128847 -2.60685 -0.923229 -1.75845 -1.1491 -0.855044 0.452823 -1.25164 0.992998 -0.669998 0.269272 -1.32713 -0.258444 -2.69217 0.179192 -0.740063 2.66014 0.370049 -2.39541 -0.373866 0.906378 -0.822758 -0.632386 0.102758 1.51733 
-0.156961 -0.263957 -0.336034 1.41034 -0.35012 -0.857856 -1.58091 -0.00389025 -0.455641 -0.126378 0.691918 -0.841311 -0.00239301 2.18044 0.879321 0.16956 -1.22945 0.584132 -0.700535 0.084393 -1.10995 -0.190875 0.12367 -1.79195 -0.412881 
0.389151 -1.05876 0.0884061 0.673776 -1.64058 0.766274 1.43133 -0.362187 -1.41066 -1.26331 0.288994 -0.623217 -0.149933 -1.65407 -0.326563 2.04785 1.45847 -0.157246 1.63353 1.35668 1.30743 1.26019 1.01655 -0.476016 0.115287 
0.629056 -0.35394 -1.45366 -0.581991 -0.0667785 1.10436 -0.311521 1.34472 -0.301671 0.657298 0.423498 0.0370908 -0.482266 1.26468 1.22235 -0.0656377 -1.03844 0.313398 -1.61136 -0.633715 1.40772 -1.21349 0.810247 -0.156598 -0.507038 
0.0315475 -0.392926 -0.818041 0.60948 -0.106315 0.684547 0.412442 0.512596 1.723 -0.383031 0.485295 0.382705 0.746567 0.96494 0.173175 0.237505 1.02407 -2.71487 0.11885 -1.17635 -0.325261 -1.08817 -0.298949 1.07447 0.806558 
-1.7326 0.753569 -0.316669 -0.253231 0.0119826 0.481598 1.53654 0.234931 -0.425095 1.17601 0.445992 -0.627624 -0.0219851 0.549448 0.773913 -1.20992 0.637949 -0.58668 -0.565571 0.275163 -2.29945 0.735063 -1.3745 -0.867411 0.503142 
0.302058 -0.0458147 0.658024 0.00127433 -1.24871 2.77146 2.3962 -0.620888 1.19812 1.08772 -1.5051 1.27045 0.477498 1.1509 1.39792 -0.29974 -1.14857 0.0468263 -0.11809 0.166103 0.387993 0.557432 2.05566 -1.43468 -0.978168 
-0.789549 -0.502449 1.56543 -1.29381 -0.0197873 0.959547 1.14814 -0.588474 -0.680855 0.356516 1.37995 0.327395 -0.0208217 -0.909157 -0.495526 0.599429 -0.202458 0.0537485 0.721402 -1.17607 -1.43744 1.44109 -0.0541776 0.188905 -0.756105 
2.59941 0.789384 -0.452986 -0.544225 -1.30413 0.268185 -0.688307 -0.28477 1.52683 1.1577 -0.382108 1.28998 0.48216 0.882876 -0.306054 -0.316542 1.23666 -2.157 -1.00382 -0.200228 -1.13134 -0.468015 0.0425293 0.943108 -2.67089 

-0.726897 -0.361448 -0.360784 2.04976 -0.968053 0.67832 2.27187 -0.267837 -0.735913 0.0353526 
-0.219497 -1.39938 0.165445 -0.0437165 0.511624 1.21478 1.93082 0.376225 0.0755356 -0.0159917 
1.4777 -0.389107 0.142208 0.475018 -0.0249241 -0.518104 -1.96683 0.579734 -0.0634356 0.900579 
0.811975 0.185769 -1.11519 0.701922 -0.262944 0.357393 0.108235 -0.896738 0.662454 1.76304 
0.98718 -0.306752 1.77866 0.783126 -0.75682 -0.0727548 0.501648 -0.551127 1.41249 0.968804 
1.54419 0.390498 0.775086 -0.5547 1.47263 0.107355 -0.230611 -1.39411 0.960212 -2.02468 
0.245075 -0.718202 -0.197134 -0.540695 -0.0392503 -1.18441 1.98255 -0.452019 1.30921 -0.872646 
-0.491792 0.872074 -0.730952 -1.81107 1.41372 -0.597228 0.0580069 -0.217881 -1.19847 -1.05404 
-1.00939 1.30727 0.253633 -0.00142803 -0.867552 1.17952 -0.173729 -0.952044 0.717014 -1.46797 
-1.58698 -0.436965 1.08662 0.682088 -0.856723 0.693961 0.852741 -0.866633 0.704785 -0.809289 

-0.0156571 -0.449148 0.24786 -1.04636 -1.34806 -0.128934 -0.676176 1.06349 -3.03193 0.165242 

