-0.17384 2.17918 -0.368431 0.736783 0.499809 -0.520509 -0.719846 -1.91418 0.148641 0.907659 -0.179253 2.48399 0.427963 0.19768 0.166711 -0.459774 -1.62461 -0.694732 -2.08023 0.530205 -2.17729 -0.131825 1.86741 -1.05874 0.242032 
0.133604 1.84178 1.20802 0.166179 -0.775932 0.556744 -1.05439 1.27612 -0.393008 -0.325317 -0.230523 1.20951 -2.11529 -1.41022 -0.604616 1.49714 0.460285 -0.407315 -0.18994 -0.835737 0.835581 0.0262377 0.13076 0.784361 -0.393059 
-0.195594 0.458956 0.93372 0.228139 0.877747 0.655195 0.0752626 -1.52563 -0.9424 1.02685 -1.67503 -1.13505 1.71559 -0.179309 -1.03033 0.540531 -0.868846 -1.2302 -1.92406 -0.278855 -2.11076 -0.204888 -0.0937562 1.01006 -0.974321 
1.22207 -0.601863 -2.08525 0.739619 -1.01919 2.25571 0.679332 0.919916 -0.0636798 -1.2037 1.52699 -0.0186526 -0.670411 1.31144 -0.499293 -0.511483 -0.0215754 0.241743 -0.272033 0.244981 0.322572 0.788989 -0.188313 0.358638 2.2123 
0.461529 0.699037 -2.53831 -0.345703 -0.428211 -1.42964 -1.57203 0.0782768 -1.23779 0.13113 1.80612 -1.74556 0.790763 -0.784746 -2.71118 -1.26251 0.469832 -0.236554 0.452194 0.936865 0.348851 0.0831433 0.138562 -0.369321 -0.169286 
1.72499 -0.570626 0.0366907 0.503034 -1.19979 1.13866 1.22829 -0.489592 0.109285 -0.553011 -0.408478 -1.15627 0.446402 1.01992 0.074438 -0.369554 -1.44932 0.933494 2.10703 0.376797 -0.514931 -0.147591 0.375124 -0.364473 1.11206 
-0.130778 0.933998 0.188253 0.0263257 -0.565041 -0.44574 -0.468195 -0.404498 1.50163 0.276745 -0.123207 -0.935212 -0.109401 0.918045 0.441478 -0.531121 0.0942816 -0.659993 0.486539 -0.106064 0.613833 0.935694 -1.1052 1.45072 0.394526 
0.845156 0.62651 -1.00019 -1.48961 -1.1792 1.28002 -2.66853 -1.05715 -0.902528 1.90622 0.378471 1.19213 -1.53805 0.277317 0.124608 -0.378035 -0.531156 1.99128 -1.05679 -1.89867 0.161166 -2.06123 0.467304 0.32296 -0.279222 
0.435711 0.255875 1.51656 1.30093 0.12709 0.473911 0.00482536 0.839597 0.85438 0.789311 0.585916 -0.063653 -0.868421 -1.2799 0.164293 0.655921 -2.25802 -0.604506 0.942514 -0.382627 -0.154493 -0.155097 0.0175464 -0.15599 -0.545848 
-0.353697 0.480571 -1.61398 -0.380783 0.696141 -0.525753 0.316337 -0.914779 0.00782229 0.171363 1.58321 1.08576 0.404086 1.36924 -0.108472 0.0133388 -0.183426 1.19005 0.956915 2.06636 0.261908 -0.765189 -0.767906 -0.46036 0.0652309 

0.924011 0.608277 -1.23066 -0.235276 -0.662184 0.256614 0.72637 0.312063 0.467804 -0.768704 
-1.16256 -1.56054 0.076827 -0.0185664 0.156066 -0.022331 -0.729351 -0.341746 -1.73915 0.018775 
0.2357 -0.155329 -1.26627 -1.6245 -0.729448 0.74312 0.181059 0.447255 -0.358619 2.07138 
0.161031 -1.33949 -2.21922 1.90041 0.660165 -0.431516 -0.319446 0.717419 1.54277 0.683367 
1.21696 -0.678398 -0.60523 0.74849 0.9187 0.606239 0.0041603 0.706797 0.275653 0.330906 
0.529442 0.0255955 -0.437067 0.674859 -0.804034 -0.619091 1.21579 -0.308126 -1.41882 -1.00486 
1.23568 0.355398 -0.474305 0.0542284 1.60096 0.00914494 -0.561636 -0.685273 2.16761 -1.39738 
0.381664 0.278618 0.736356 -1.80057 -2.00407 0.411998 1.0016 -0.326116 -0.0572152 -1.8026 
0.950396 0.708014 0.994439 0.208548 0.642794 0.93464 -0.27137 -0.495162 1.58605 -0.421644 
-0.891842 -0.668519 0.149565 -0.868968 -0.288025 -0.29524 -1.94409 2.3685 0.0102898 -0.443893 

1.09112 -1.08806 0.331109 -1.29404 -0.254825 -0.375422 1.25443 -0.419232 1.40876 0.159277 

