-0.658735 0.452458 -0.634658 0.212873 -1.21536 0.765261 -1.25184 -2.20317 -1.45656 0.422347 -3.58254 -0.834386 -2.56745 -0.488128 -2.47148 -2.05496 -1.51608 -2.15268 -2.79002 -2.19445 -0.171659 -1.56074 -1.73309 -1.15911 2.44649 
0.736007 0.348763 1.00792 -1.09736 0.379306 -0.205731 0.221289 -0.483102 0.0291174 1.30454 -1.29117 0.189871 0.287491 2.09665 0.824367 -0.0869841 -1.16605 -0.66783 0.565304 2.79917 0.684844 -0.00370142 -0.420598 1.40296 -0.235589 
-1.02522 -0.56503 2.20459 1.70344 1.39646 0.153666 1.97709 2.59939 1.77441 2.79409 2.24258 1.59428 2.36241 2.50868 2.24014 3.28786 -0.00212241 0.725943 1.59378 2.67465 2.6581 1.34569 2.87815 2.38614 -1.48062 
0.75467 0.804838 2.66785 2.56356 2.68223 0.45496 3.11116 2.2979 3.94245 2.06795 1.5888 2.4639 3.46594 3.1031 1.17135 3.35913 0.0599186 2.01734 3.046 3.34912 2.95525 0.615991 0.895045 2.63762 -1.65847 
0.71822 0.0316341 0.308542 -0.415945 1.10098 -0.341104 -1.54447 2.24246 -0.305677 -0.0146671 -0.7129 1.75931 -0.0845271 0.470784 -1.75777 0.321118 -0.675953 -0.777156 0.804199 0.28885 0.39245 0.18281 -0.345801 1.42458 0.204477 
0.368092 -0.138721 -0.336941 0.846201 -1.00577 0.708246 0.676893 -0.617639 -0.349136 0.833427 0.181676 -1.54083 0.498599 -0.603175 -0.925136 -0.516118 -0.65319 -0.378253 -0.20473 -0.480136 -0.48237 -2.16082 -0.0710493 0.50958 0.446643 
0.289898 -0.269193 0.0463935 -1.94052 -0.842958 -0.450782 -2.87713 -3.90787 -1.7772 -1.59308 -1.19095 -1.46 -0.514081 -1.29363 -0.86571 -1.18197 0.693711 0.886419 0.0875641 -2.19677 -2.50532 -2.92104 -0.016081 -2.69006 0.581961 
-0.951482 1.2387 -1.22672 -0.349767 -0.0057886 0.0588753 -2.37743 -0.420651 -0.469848 -1.70464 0.671544 -0.406939 0.142348 -0.232426 1.79496 -1.14435 -0.746146 -0.527762 3.19237 -0.988374 0.995676 -0.540492 1.41351 -1.7777 0.700018 
-0.289531 -0.716053 0.0911182 0.666678 -0.359547 -1.79836 -1.04778 -0.682129 0.295771 -1.20506 -1.13936 -0.849394 -0.736557 0.397617 0.804794 -2.23169 -0.251819 -1.944 0.559757 -2.31377 -1.16368 -2.00158 -2.41206 -1.14522 -0.293922 
0.244385 0.716392 2.57346 1.99374 0.170597 0.960762 0.967474 0.227746 0.135826 0.590459 1.48847 0.923991 2.20617 0.807452 0.623106 0.653103 1.25386 1.26317 -1.01722 1.5066 1.64155 2.04795 -0.0547811 1.0582 -0.93162 

1.72443 0.66952 0.426332 -1.3696 0.0103431 -0.733509 -0.422445 0.879035 1.75584 1.14455 
-0.390812 1.30724 -2.20034 2.23593 0.0741911 0.613752 -1.71089 1.02784 -0.648215 0.664233 
-0.58297 -0.372875 -0.674521 0.644431 -0.530792 0.483795 1.61737 -0.901303 0.589857 -0.40198 
-0.397655 0.446658 0.2703 0.068758 -0.141816 -0.248619 -0.614475 -0.383793 -1.03317 -1.55274 
-1.2177 -0.405311 -0.35991 0.726907 -0.566327 -0.773636 -0.523583 -0.868568 -0.777641 -0.166189 
0.585775 0.23384 0.152647 -0.43891 0.863731 0.852922 -0.667774 -1.2222 -0.577715 0.496628 
-0.160457 0.0898168 -1.01581 -0.623959 -0.670929 -0.538744 0.310855 -1.34615 -1.21747 -1.07991 
-0.745001 1.3153 -1.87897 -1.32316 -1.11785 1.90167 -2.46343 -1.17979 0.891354 0.327038 
1.16691 0.0784778 0.540443 -0.585936 -0.248738 0.256135 -1.04829 0.17926 -0.505657 0.0466183 
1.03527 1.27921 -0.120288 0.799563 -0.270916 1.51194 -1.00314 -0.208239 -0.571037 0.889935 

-1.02673 0.0968707 2.22302 -0.741379 0.44547 1.25975 0.400821 0.248058 0.564759 0.056053 

