-1.65094 0.929176 0.579665 -0.864652 0.27674 -1.2189 1.58216 -0.438719 0.264479 -0.146464 0.242742 -0.44474 -0.154551 0.108668 -0.409438 -1.49044 -0.769417 -0.984107 -0.106178 -0.390046 -0.0528779 -0.214199 -1.26601 1.09725 -1.41297 
-0.203764 0.0897414 -0.878102 1.89761 2.58234 -0.619904 -0.520476 -1.03869 -0.679213 -0.56705 2.82406 1.72909 -1.0033 0.129677 1.23777 1.04611 0.028114 0.498366 0.138332 -0.755152 -0.0654181 -1.70867 -0.35569 -0.0250658 -0.547242 
0.317295 -0.124318 1.34266 -0.838678 -0.412957 -0.772682 -0.0129798 0.0431515 0.0142512 1.22836 1.52413 1.29957 -0.607864 -0.16717 -0.455324 -0.0944318 -1.12042 -1.05134 1.16044 0.596731 2.15702 0.257934 -1.64426 -0.912712 -0.249892 
-0.15125 1.09436 -0.0727025 0.576153 -0.226454 1.42465 1.00696 -1.85312 -0.238392 0.292363 0.385694 0.0841939 1.45118 0.769437 -1.92734 -0.965362 -0.294198 1.25603 0.640375 0.818572 0.0820424 1.75441 -0.454088 1.7952 -2.39445 
-0.498811 -1.90674 -1.47992 0.0829807 0.846881 0.486711 -0.156912 0.215373 0.147414 0.446874 0.265165 1.6623 -0.321179 -0.5348 -0.623176 -0.64532 -1.85863 -1.16081 1.15362 0.540485 -0.0268597 -2.0638 -0.794385 -0.337094 0.682035 
0.963606 -1.93174 -3.01659 0.478566 -1.35337 1.5799 0.530896 -0.846238 -0.513539 -0.701016 0.824255 -2.26074 0.141731 0.400581 0.908023 1.3865 0.665053 -0.896064 -4.05825 0.568927 1.32698 -0.556882 0.558213 0.647713 1.2059 
1.01431 -0.84969 0.483733 0.730698 -0.996134 -0.630171 -0.0292555 -0.385022 -1.22468 -0.767745 1.24491 1.82101 -2.31363 0.82275 1.19074 0.858385 -0.850724 -0.825384 -2.07526 0.71981 0.821313 -0.384903 0.55064 -0.322569 -0.275146 
-0.237343 0.308772 -0.432182 -0.858996 1.43799 -0.346423 1.13711 -1.58296 0.318554 0.105127 0.394116 1.20566 1.43632 2.06058 -0.832637 -1.17433 -1.90352 0.265652 1.08858 1.13019 0.349596 0.499954 -0.933147 0.896267 0.677818 
-0.992642 -1.22733 0.606769 1.59718 -1.01151 0.0426744 0.328722 0.96237 0.811263 1.03253 -0.130191 1.16311 0.666371 -0.188673 -0.333173 0.331697 0.0436493 0.49075 0.989349 -0.214265 -0.90515 2.48625 -0.956747 -1.11464 -0.991807 
-1.46047 2.00561 0.24444 -0.985754 1.07456 -0.117348 -1.27858 2.14296 0.481108 -0.42077 1.04609 0.515454 -0.957874 0.742121 -1.25823 -0.346164 -0.325176 -1.58382 -0.0359586 -2.17495 0.387793 1.8707 0.53853 2.15761 0.22879 

-0.0332195 -1.72846 -0.0198814 -0.439016 -0.604771 -0.00843608 0.455657 1.26652 -0.58456 -0.112026 
0.0534895 0.923807 0.0183161 -1.18912 0.450892 -1.97981 -0.756575 1.55787 -0.345582 -1.72789 
-0.288839 2.06196 -0.647157 0.422101 1.35663 0.76265 -0.312319 0.0572723 -0.52622 0.784865 
0.819326 0.42991 -0.723917 0.567197 -2.36698 0.726261 -0.350412 0.099684 2.25339 0.936806 
0.167651 1.32049 -2.29903 1.69171 1.1166 0.629588 -1.06074 0.545247 1.47518 -0.0691237 
-0.807074 1.00367 0.19155 0.00360093 0.50336 -0.960851 -0.960271 -0.533173 1.72619 0.381897 
-1.14625 -0.958063 0.428537 -1.05957 -0.694774 0.260306 0.0556688 1.9519 -2.70538 -0.382275 
-0.130432 0.135524 0.270716 0.827791 -0.498759 1.00599 0.177082 0.76062 0.406151 -1.37051 
-0.209337 0.571577 -1.63928 -0.8195 -0.303606 -0.27845 0.966838 2.12068 -0.00795127 0.311534 
-1.1602 0.394383 0.0156248 -0.257115 -0.0625973 -0.673983 0.18582 1.60583 -0.0466798 0.715344 

0.861736 0.24831 0.710967 0.200369 1.92756 0.664152 0.129908 -0.552173 -0.0234119 1.27992 

