-1.557 -0.167196 1.05588 1.74191 0.136598 -1.42655 -0.448881 2.45885 0.602671 -0.900318 0.981013 -0.512316 2.28836 -0.820915 -0.103107 -0.367771 -0.0657339 -2.00034 -1.46256 0.220744 -1.49484 -1.16267 1.4803 0.0716631 -0.645967 
-1.3699 0.834779 -1.02229 0.643194 -0.0336876 0.493908 0.545693 0.110405 -0.0262633 -0.396698 -1.6843 0.304288 0.845214 1.33543 -1.46491 -0.638197 0.931392 0.14723 0.709707 2.02018 -0.286214 -0.902049 -1.1504 -0.283044 2.292 
-1.58508 -1.49289 -1.57175 0.535794 -0.185122 0.502076 0.421456 -0.375745 -0.738032 -0.264736 -0.0449984 0.644164 1.5975 -0.303963 -0.180584 -1.8425 0.690107 1.70784 -1.42794 0.526232 1.38449 1.19479 -0.116512 -1.04724 -1.00667 
-1.3017 0.205256 0.61795 -1.5955 -0.0052051 -0.555659 -0.36434 1.1825 0.43205 -1.00614 -0.00908654 0.654505 -0.0905903 -0.917441 0.286011 1.59074 0.762163 -0.968143 0.216011 0.0714419 1.02467 -0.349861 -0.69042 2.19998 0.574412 
-1.63164 -0.603247 0.698497 -0.708049 -1.37454 1.60773 2.24274 -0.770198 0.262211 0.410426 0.798241 1.18001 -0.383659 -1.11236 2.60929 -0.768167 -0.622068 -1.52926 -0.0291592 -0.158298 -1.37729 -1.13872 -0.406037 -0.501328 1.46866 
0.626449 -0.666977 -0.149996 1.26535 -0.151433 0.394364 -0.944541 -2.11192 0.265708 -0.265502 0.925326 -0.0345287 0.755495 0.788798 1.07505 0.29466 0.228631 -1.79335 -1.54665 -0.84334 -1.13313 -1.46759 -0.0497695 -0.435815 1.4747 
-1.26062 0.762808 -1.4447 2.20836 0.599058 -0.0535546 0.322111 -1.88632 1.09858 -0.710458 2.44077 1.2541 1.16324 -1.37589 0.513933 -2.03139 -1.28171 -0.544599 1.59482 -1.01428 -0.878819 -0.350468 0.173841 -0.254727 -0.205551 
-1.66962 -0.274539 -0.000945731 -0.504348 -2.87222 0.34114 0.0877057 -0.976284 -1.14802 1.68871 0.402052 -0.321723 -0.647443 0.718039 0.791998 -0.67582 0.18837 -1.05078 -0.288167 -0.932045 -0.208059 -0.0289606 0.87713 0.717085 0.700919 
0.289901 3.38868 0.898805 0.0345782 -1.58927 0.409886 1.40663 0.250293 -0.319459 -1.96941 0.196065 0.645611 -0.440875 -0.8248 0.00896948 -0.189925 0.294251 0.166093 -0.348506 -0.122283 -0.614033 0.700868 -0.626111 0.361155 -1.4841 
1.54867 1.03013 -1.1287 1.60797 0.199746 2.15625 -0.0531369 -0.437568 1.27969 -1.14471 -0.859664 1.47194 -0.552761 -0.864032 -1.90129 -0.177369 0.0107371 0.406283 -0.926887 0.47467 0.897656 0.499393 -0.0346489 -0.559908 -0.355147 

0.0202774 -0.513353 -0.106982 2.01315 0.220993 -0.14498 0.972817 -0.327845 0.366887 -1.67302 
1.14098 0.359603 -0.127794 -0.879794 0.949332 -7.56623e-05 -1.62025 -0.363868 0.591157 -0.308598 
1.13569 -0.583403 0.252613 0.832396 0.897397 0.567216 0.498683 0.931765 -1.09789 0.675354 
0.807979 -0.0353015 -1.25453 -0.127422 0.403467 -2.12499 -1.54575 0.457185 1.56232 -3.30161 
-1.23438 0.133661 -0.123784 -0.870376 -0.161817 0.0873733 -0.678336 0.763863 0.799909 -0.231283 
0.157845 0.0934219 -0.295667 -0.603406 0.847469 1.75196 -0.00541969 0.260227 0.620581 -1.37538 
0.514888 -1.72358 0.498321 -1.1043 0.416586 -0.567676 1.67841 -0.0546977 -0.349052 1.29103 
0.881708 0.572494 0.56086 -0.786633 -0.576606 0.668225 0.266944 0.482231 0.165087 -0.382467 
-0.505058 -2.61958 2.07543 0.194981 1.01818 0.381205 0.169793 -0.501423 0.219421 0.287899 
0.389959 -0.274898 1.89589 1.41328 -2.73061 1.78228 -0.280706 0.37467 0.410195 -0.656099 

0.284021 -1.07942 -0.178739 -0.148385 1.75132 -0.933614 -1.17657 -0.0784848 -0.603882 -0.309806 

