0.161256 0.533278 -0.302509 -1.10381 0.575833 2.25225 0.358993 -0.929634 -0.236212 -0.0616114 0.929013 -0.110935 1.63471 0.437789 1.31175 -1.3697 1.18649 -0.325202 0.871108 -0.735079 0.906286 0.531042 -2.48296 0.0656281 2.05255 
0.44963 -1.1993 1.54591 0.914771 0.0176707 1.6658 -1.69125 1.79386 0.258869 -1.05956 1.48114 0.591804 -0.87332 -0.533166 -0.0194064 1.40384 -1.9617 0.0692296 0.119915 0.0370516 -1.27625 -0.13711 -0.72446 -0.388432 0.173113 
-0.58006 0.726654 -1.08139 -0.451181 -1.34829 -2.056 0.509655 -1.61167 0.11015 0.907659 0.77994 0.179192 -0.246948 0.910632 -1.89432 1.75906 -0.599744 -1.22712 -1.41501 1.42215 0.809397 1.67083 -0.950144 -1.52247 0.220877 
0.926742 0.625491 -0.871597 -0.000446637 -0.73582 -1.29101 0.278 -0.469376 0.536505 1.65546 1.0396 1.10012 -0.343229 0.402191 -0.602988 0.689501 0.356065 -0.941941 0.428075 -0.476217 0.294 0.845821 -1.10045 0.869604 -0.697777 
-0.832259 -0.0960796 1.41664 -0.63143 0.524982 0.150036 -0.606763 -0.27419 -0.775076 -0.108962 0.415695 1.0044 -0.528434 -0.427567 0.0785513 1.24688 1.12169 -1.89148 -0.445849 -0.711603 -0.668879 -0.478017 1.16772 0.567777 -0.0968242 
0.215397 0.529431 -0.61535 -0.136623 -0.827273 1.64421 -1.01462 1.14334 -1.94203 -0.924375 1.23726 1.14203 -0.731208 -1.12607 0.556151 1.98715 -0.169639 -2.2291 -0.690862 0.501989 -1.56909 0.111199 -0.929966 0.955766 0.349712 
0.298219 -0.17752 -0.617523 0.398881 -1.98376 0.0204453 -1.79279 -0.253827 -1.05195 0.0427402 1.7102 -0.542453 0.295729 -0.908656 0.375209 1.53324 -0.541611 0.725636 0.906725 -1.75939 -0.915772 0.398394 -0.280581 -1.51366 0.193096 
-0.341567 1.38654 -0.63855 -0.939945 1.23001 -0.175044 -1.03228 1.85006 1.26164 0.148299 -1.36398 -0.23972 1.24128 -1.53114 -1.53964 0.18185 -1.97528 0.465235 -0.106623 0.0729759 -1.07533 0.756702 -0.257457 0.733747 1.35605 
2.25988 -0.904487 -1.00366 2.35197 -0.741516 -0.890922 0.819107 0.822085 0.0352354 2.30403 -1.2415 1.39052 -0.057171 -0.0280084 0.29923 -0.540252 0.43687 1.16074 0.544675 -0.0948122 0.633328 -2.05774 1.99972 -1.1689 -1.08977 
0.218554 1.21663 -0.0139705 -0.527731 0.988156 -0.371838 -0.836002 -1.3072 0.997028 -0.739038 0.0844681 0.478379 0.994151 1.77427 0.42935 0.0813613 -0.019011 -1.14927 -1.01178 0.633664 0.757536 -0.336879 0.41927 0.852273 -0.0721187 

1.15605 0.0771022 1.2185 -0.0142905 -0.231865 1.18872 0.204117 0.233444 0.997168 -0.0947959 
0.841548 -0.0526932 0.879368 0.368365 -0.548701 1.1521 0.332503 -0.715858 -0.308733 0.823456 
1.28648 0.139171 1.07952 0.893719 -0.564086 1.19209 -1.83702 -0.639214 -0.919569 -0.775908 
-1.54335 -1.2784 0.776318 -1.06638 1.01189 -0.439784 0.884829 0.247569 -1.78112 -0.372456 
0.299704 -1.03521 0.297214 0.739991 -1.48415 -1.26231 1.27452 0.650485 0.113746 1.66658 
-0.481916 -0.0260401 1.26599 0.248252 0.3385 -1.9857 0.432918 -0.778011 1.24634 1.6752 
-1.00997 -0.0276085 1.4994 -0.373565 1.09677 -0.13009 -1.42742 -1.24411 1.81401 -1.84226 
-0.924376 -1.78862 -0.265064 -1.50371 1.4012 -0.24914 -0.853073 -0.570807 -0.214503 -1.37443 
-0.247371 0.594441 0.290548 -0.589063 0.983511 -0.518029 -0.461792 -1.92526 -0.697248 1.18152 
-1.86875 -1.54593 -0.337723 0.898884 0.336736 0.892544 -0.0547716 -0.514567 -0.653609 0.9302 

0.108462 0.0123233 0.705078 1.53752 1.06884 -0.274931 0.112973 -0.183152 -1.02795 -1.05886 

