-0.477646 0.299786 -0.798171 -0.425499 0.198044 1.27938 -0.926533 0.0228053 -0.187619 0.525995 -0.0629127 -1.33167 -0.885796 -0.878075 0.736495 0.995604 -0.957261 0.227976 0.776262 -0.909042 1.11333 -0.0992909 -0.108303 -1.11636 -0.095858 
2.61309 0.298236 -1.5328 -0.488295 1.59701 -0.730825 0.532091 0.0788601 1.08369 0.298573 1.97724 -0.144346 -0.227354 -1.14418 0.502564 1.18231 -0.77832 -0.0723361 -1.19 -2.87102 -0.329905 -1.00534 -0.504532 0.421331 0.818218 
1.51102 -0.0265846 0.800237 -0.0402271 1.11166 -1.97118 -1.28336 -0.673062 -0.312896 -0.838696 1.5337 -0.826369 -0.180069 0.748855 -0.0976487 2.12594 0.655474 -0.24615 1.23508 -0.0561383 1.5166 -0.0340837 -0.394154 0.384326 -0.719569 
0.784874 0.180342 -1.60998 0.593087 0.959179 0.578767 -0.000178026 -0.264744 -0.659991 -0.882466 -0.446109 -0.18122 -1.14168 -0.53535 0.0476631 -0.267328 -1.91723 -0.690735 -0.884123 -1.50106 0.55718 -0.214295 2.75033 0.563372 -2.56748 
-1.45161 0.830102 -0.024447 0.335971 0.350419 1.19299 -0.930732 -2.75817 0.756675 -0.0460858 0.971552 -0.895861 -1.94438 -1.04586 0.0748589 -1.22727 -1.1479 0.833046 2.29005 -1.52433 0.320106 -0.200221 -0.541661 -0.759253 -0.393028 
-0.737549 -1.27703 -1.73704 0.556121 0.339527 1.69336 0.645687 0.637398 -0.0934688 -0.476538 -2.00054 -0.971548 0.202916 -0.746602 0.422417 -1.105 1.3929 0.648273 0.397898 1.89144 0.444712 -0.411117 1.56848 -1.27971 -0.500722 
-1.21883 0.226967 0.688465 -1.43465 0.790781 -2.03889 0.585319 0.93172 0.409492 0.913639 -0.307195 -0.504286 -0.252794 -0.478483 -1.2305 -1.0315 0.34222 -0.655596 0.727735 -0.881768 0.475889 2.2906 1.44387 -2.44735 -0.739547 
-1.80163 0.171962 -0.504986 -1.38683 0.374235 0.146426 0.126777 -1.64505 0.744413 -0.635659 1.54582 -0.694906 1.79402 0.32098 0.158024 -0.433774 -0.412232 2.53238 0.782243 1.51786 0.106741 1.07715 -0.661252 0.581389 -1.0602 
1.71748 0.466352 0.0362593 -1.54611 0.713054 0.561145 0.230301 -0.63239 0.344674 -0.540813 0.32319 1.07727 -0.240339 0.555822 -0.0687701 -1.26181 -0.26551 -0.29274 0.33326 -1.50695 0.557505 0.223774 0.470356 0.996824 2.53106 
0.313337 1.26487 -0.217441 0.973841 0.725038 -0.371899 -0.704238 0.345653 1.14718 -0.363973 -1.18634 -1.48896 -1.03897 -0.653883 1.4113 -0.953724 -0.0146086 0.530126 -0.363555 0.711357 -0.377213 0.578682 -0.718335 0.53173 1.03249 

-0.967698 -1.17697 0.163267 -0.673612 -1.15032 -1.68367 1.90617 2.60524 0.838733 -0.205791 
0.289619 0.71936 0.09423 -0.929923 -0.797456 0.802885 -0.43145 1.2399 0.0845137 0.914365 
-1.51326 -0.462336 0.395229 1.57862 1.68041 0.579113 0.108887 -1.11358 0.127191 -0.488058 
1.57631 -0.4675 0.160564 0.439249 -0.708772 0.804041 -0.230322 0.538756 -1.38649 0.529918 
-0.621138 0.619497 -1.09436 0.405717 0.179043 -0.181803 -0.15216 1.79655 1.47532 -1.05042 
-1.14981 -0.419781 -0.108612 -0.589675 -0.0409379 0.425447 0.361631 -0.768545 -0.834537 0.015605 
0.404412 0.362681 -0.398304 -0.870077 -0.59696 -0.399241 -0.614643 -0.487196 0.420252 -1.33841 
-2.46277 0.817499 -0.793878 -0.349132 0.599945 -1.40093 -0.479452 1.22673 0.358736 -0.0519587 
1.06243 1.07723 0.478464 -1.0451 -0.967893 -0.506946 1.38759 -0.284095 0.717552 0.661634 
0.34793 0.279057 -0.15237 -1.06007 -2.05442 -0.228648 0.746563 -1.34102 2.13648 1.71113 

-0.180569 -0.169732 0.371727 0.709689 1.08548 0.119008 -1.45999 -0.402288 -0.0990519 -0.863594 

