0.991689 -1.18356 0.437262 -0.403269 -0.238884 0.11758 -1.20303 0.889022 1.78475 1.81429 -0.0475286 -0.965703 -0.417884 -1.34262 1.36846 1.3356 0.897218 -0.818753 -0.260039 1.66375 -0.763753 0.264749 -1.2064 0.215421 0.713746 
-1.20634 0.20779 -0.992603 -0.668015 -0.567147 2.3478 -1.24081 -0.884789 1.50814 0.180339 0.995667 0.417064 -0.825351 -0.123089 0.862669 1.89571 0.666112 0.0619188 0.218071 -0.313799 1.9799 -0.28552 1.49202 -0.305549 1.60087 
-0.952082 -0.126175 0.419549 -1.21321 0.0317386 0.215619 0.591932 -0.775061 0.191325 0.439391 0.278538 0.421103 0.618374 -0.493624 0.39542 0.0860889 -1.35373 -1.40663 -0.374013 1.3153 -0.633128 -0.625481 0.659034 0.690398 -0.729491 
0.111168 -0.943013 0.696141 -1.33313 1.01044 -0.237743 -0.303696 -0.686557 0.114918 0.664398 -0.708162 1.63472 -0.274353 -0.703638 2.22232 0.0416884 -1.07019 0.303031 0.666627 1.04565 0.659745 -0.382146 -0.365308 -1.46838 1.21052 
1.31647 -0.190115 0.930907 -1.11183 0.465302 1.03651 -0.745436 0.298002 0.497037 1.30825 -1.02635 1.36157 -1.13139 0.734553 0.192022 -0.798591 0.681538 0.658384 -0.364822 -0.798678 -0.326588 -0.975264 -1.14066 0.302606 -0.781725 
-0.648562 -0.802733 -0.495674 0.964874 -0.81045 0.433643 -0.246064 0.442896 -2.11817 0.443766 0.490203 1.0004 -1.57807 0.58901 0.976919 -0.464143 0.519586 1.6822 0.0878408 -0.414851 0.810287 0.866953 0.75547 2.85621 -0.0143769 
0.60365 0.884722 0.551443 0.000521388 -0.552894 -3.49874 0.0103654 0.563609 -0.100662 0.356847 -1.04825 -0.2906 0.587042 -0.344865 -1.53786 -1.20106 -0.483698 0.0753691 -1.20547 -0.129509 -0.541924 0.467846 -2.55159 0.454345 0.733998 
-1.36247 1.32976 -2.357 -0.389162 -0.077148 -0.118499 -0.516189 -0.173585 -2.43832 0.206952 0.777627 -0.41727 0.262933 0.269955 -1.09457 0.615403 0.102799 0.828578 1.24345 -0.550465 0.668599 -0.252675 -0.84201 -1.93855 -0.55005 
-0.169982 1.60058 0.63921 -0.734201 2.1566 -0.125538 0.0519685 0.0652043 -0.55104 -0.330484 0.951663 0.725998 -0.395846 -1.60382 1.24626 -0.0298704 0.328536 0.0453937 -1.0321 -0.167431 -2.99383 -0.44093 0.768691 -0.522192 -0.143928 
-1.56755 0.710239 -1.45792 -0.0329754 0.0359331 1.65895 1.05585 -0.336724 0.393418 0.235068 -0.867015 -0.329773 -0.959456 0.38942 -0.306728 0.0582063 0.00545958 2.2121 -0.610348 -0.00649177 0.635975 -0.646226 1.01655 0.810409 -0.0717639 

-0.409214 2.06698 -1.05469 -0.667245 0.811643 0.737124 1.29141 0.781189 -0.163912 0.390169 

